<?xml version="1.0"?>
<opencv_storage>
<cascade>
  <stageType>BOOST</stageType>
  <featureType>LBP</featureType>
  <height>20</height>
  <width>20</width>
  <stageParams>
    <boostType>GAB</boostType>
    <minHitRate>9.9500000476837158e-01</minHitRate>
    <maxFalseAlarm>5.0000000000000000e-01</maxFalseAlarm>
    <weightTrimRate>9.4999999999999996e-01</weightTrimRate>
    <maxDepth>1</maxDepth>
    <maxWeakCount>100</maxWeakCount></stageParams>
  <featureParams>
    <maxCatCount>256</maxCatCount>
    <featSize>1</featSize></featureParams>
  <stageNum>11</stageNum>
  <stages>
    <!-- stage 0 -->
    <_>
      <maxWeakCount>3</maxWeakCount>
      <stageThreshold>-6.6005307435989380e-01</stageThreshold>
      <weakClassifiers>
        <_>
          <internalNodes>
            0 -1 19 0 32768 0 150994944 1073741824 32896 136 -1719140216</internalNodes>
          <leafValues>
            -7.5849944353103638e-01 8.2363313436508179e-01</leafValues></_>
        <_>
          <internalNodes>
            0 -1 39 0 0 0 16842752 0 1342177280 10 -1551171574</internalNodes>
          <leafValues>
            -5.0157594680786133e-01 8.4283500909805298e-01</leafValues></_>
        <_>
          <internalNodes>
            0 -1 23 0 0 0 83886080 0 0 134219912 411041920</internalNodes>
          <leafValues>
            -6.4068341255187988e-01 6.0002231597900391e-01</leafValues></_></weakClassifiers></_>
    <!-- stage 1 -->
    <_>
      <maxWeakCount>6</maxWeakCount>
      <stageThreshold>-9.2715436220169067e-01</stageThreshold>
      <weakClassifiers>
        <_>
          <internalNodes>
            0 -1 9 0 0 0 0 128 0 10 -1550909430</internalNodes>
          <leafValues>
            -6.5789473056793213e-01 8.2677167654037476e-01</leafValues></_>
        <_>
          <internalNodes>
            0 -1 31 0 0 0 16842752 0 0 8 -1546714622</internalNodes>
          <leafValues>
            -4.9742931127548218e-01 8.8744795322418213e-01</leafValues></_>
        <_>
          <internalNodes>
            0 -1 20 -1073709056 32768 0 83886080 1073741824 1073741824
            136 -1719664504</internalNodes>
          <leafValues>
            -4.2023622989654541e-01 8.8355296850204468e-01</leafValues></_>
        <_>
          <internalNodes>
            0 -1 42 0 0 0 16842752 0 1073741824 0 663420938</internalNodes>
          <leafValues>
            -8.4086465835571289e-01 4.6750065684318542e-01</leafValues></_>
        <_>
          <internalNodes>
            0 -1 40 0 0 0 83951616 0 0 8 -511508470</internalNodes>
          <leafValues>
            -5.3611236810684204e-01 5.9984153509140015e-01</leafValues></_>
        <_>
          <internalNodes>
            0 -1 27 1073741823 1073741823 -1 805306367 2147450751
            2147483647 2147483647 -1200259209</internalNodes>
          <leafValues>
            -4.1893625259399414e-01 8.6241376399993896e-01</leafValues></_></weakClassifiers></_>
    <!-- stage 2 -->
    <_>
      <maxWeakCount>3</maxWeakCount>
      <stageThreshold>-8.0046761035919189e-01</stageThreshold>
      <weakClassifiers>
        <_>
          <internalNodes>
            0 -1 28 0 0 0 150994944 0 0 8 -2147483512</internalNodes>
          <leafValues>
            -7.0833331346511841e-01 6.5894037485122681e-01</leafValues></_>
        <_>
          <internalNodes>
            0 -1 30 -1073709056 32768 0 83886080 1073741824 1879048192
            -2147448824 570425344</internalNodes>
          <leafValues>
            -8.7917757034301758e-01 3.5115599632263184e-01</leafValues></_>
        <_>
          <internalNodes>
            0 -1 32 -805273600 32768 0 83886080 1073741952 0 8
            -2147483520</internalNodes>
          <leafValues>
            -4.4329026341438293e-01 8.5736495256423950e-01</leafValues></_></weakClassifiers></_>
    <!-- stage 3 -->
    <_>
      <maxWeakCount>3</maxWeakCount>
      <stageThreshold>-5.8310508728027344e-01</stageThreshold>
      <weakClassifiers>
        <_>
          <internalNodes>
            0 -1 33 -8191 -1 -1 -1 -1 -1 2147483647 -1191936001</internalNodes>
          <leafValues>
            -5.4221767187118530e-01 8.0778032541275024e-01</leafValues></_>
        <_>
          <internalNodes>
            0 -1 10 1073741824 -1073709056 0 1157726208 0 128 2186
            1665466890</internalNodes>
          <leafValues>
            -8.3072483539581299e-01 4.3383255600929260e-01</leafValues></_>
        <_>
          <internalNodes>
            0 -1 15 -1 1073741823 -1 1073741823 2147450751 2147450879
            2147483647 -1451786377</internalNodes>
          <leafValues>
            -4.4250613451004028e-01 7.8983747959136963e-01</leafValues></_></weakClassifiers></_>
    <!-- stage 4 -->
    <_>
      <maxWeakCount>5</maxWeakCount>
      <stageThreshold>-1.0576187372207642e+00</stageThreshold>
      <weakClassifiers>
        <_>
          <internalNodes>
            0 -1 1 -1 -1 -1 -1 2147450879 2147483647 -32897 -134383753</internalNodes>
          <leafValues>
            -5.8174097537994385e-01 7.6987445354461670e-01</leafValues></_>
        <_>
          <internalNodes>
            0 -1 4 0 268435456 0 285278208 128 128 134219784 -1342111230</internalNodes>
          <leafValues>
            -6.2821352481842041e-01 5.8110946416854858e-01</leafValues></_>
        <_>
          <internalNodes>
            0 -1 24 32768 285245440 0 1426063360 128 1342177280 8
            2063597576</internalNodes>
          <leafValues>
            -8.9404684305191040e-01 4.1894361376762390e-01</leafValues></_>
        <_>
          <internalNodes>
            0 -1 18 -1073709056 1073741824 0 1426128896 0 0 10
            -2097086462</internalNodes>
          <leafValues>
            -5.0665909051895142e-01 6.3978976011276245e-01</leafValues></_>
        <_>
          <internalNodes>
            0 -1 22 0 285212672 0 83886080 0 805306368 136 65546</internalNodes>
          <leafValues>
            -8.8678491115570068e-01 3.4371864795684814e-01</leafValues></_></weakClassifiers></_>
    <!-- stage 5 -->
    <_>
      <maxWeakCount>4</maxWeakCount>
      <stageThreshold>-1.2490910291671753e+00</stageThreshold>
      <weakClassifiers>
        <_>
          <internalNodes>
            0 -1 12 -32769 1073741823 -1 -1 2147450751 2147483647
            2147450751 -34805</internalNodes>
          <leafValues>
            -7.0203161239624023e-01 8.2771533727645874e-01</leafValues></_>
        <_>
          <internalNodes>
            0 -1 0 -1073709056 0 0 0 128 0 2 1082851330</internalNodes>
          <leafValues>
            -8.4577476978302002e-01 4.3301931023597717e-01</leafValues></_>
        <_>
          <internalNodes>
            0 -1 13 -1073709056 -805306368 0 285212672 1073774728
            536903680 134219784 -1425539064</internalNodes>
          <leafValues>
            -4.4933244585990906e-01 8.9352798461914062e-01</leafValues></_>
        <_>
          <internalNodes>
            0 -1 26 -2147483648 268435456 0 285212672 0 0 10 -1476327422</internalNodes>
          <leafValues>
            -4.5288795232772827e-01 7.4804776906967163e-01</leafValues></_></weakClassifiers></_>
    <!-- stage 6 -->
    <_>
      <maxWeakCount>3</maxWeakCount>
      <stageThreshold>-5.9330469369888306e-01</stageThreshold>
      <weakClassifiers>
        <_>
          <internalNodes>
            0 -1 10 -1073709056 -1073741824 0 -1073741824 1073741824 0
            1073741824 -1777655806</internalNodes>
          <leafValues>
            -7.2687226533889771e-01 9.3750000000000000e-01</leafValues></_>
        <_>
          <internalNodes>
            0 -1 17 -1073709056 32768 0 -2130706432 1073741824
            1073741824 10 -1962344438</internalNodes>
          <leafValues>
            -5.0501120090484619e-01 9.0987747907638550e-01</leafValues></_>
        <_>
          <internalNodes>
            0 -1 36 -1073709056 1342177280 0 1426063360 0 1342177280 0
            117506562</internalNodes>
          <leafValues>
            -6.4799898862838745e-01 6.3857871294021606e-01</leafValues></_></weakClassifiers></_>
    <!-- stage 7 -->
    <_>
      <maxWeakCount>5</maxWeakCount>
      <stageThreshold>-1.4162319898605347e+00</stageThreshold>
      <weakClassifiers>
        <_>
          <internalNodes>
            0 -1 3 0 32768 0 1090519040 136 32896 10 -1694432766</internalNodes>
          <leafValues>
            -6.3122475147247314e-01 4.2688331007957458e-01</leafValues></_>
        <_>
          <internalNodes>
            0 -1 7 -2147483648 -2147483648 0 0 128 0 10 1082860042</internalNodes>
          <leafValues>
            -8.6463254690170288e-01 2.8174722194671631e-01</leafValues></_>
        <_>
          <internalNodes>
            0 -1 21 -1 -268435457 -1 -1 -1 -1 -1 -34275339</internalNodes>
          <leafValues>
            -3.6968317627906799e-01 7.6018565893173218e-01</leafValues></_>
        <_>
          <internalNodes>
            0 -1 29 2147483647 805306367 -1 1879048191 2147450751
            2147483647 2147450751 -1938458763</internalNodes>
          <leafValues>
            -3.7262517213821411e-01 8.0902761220932007e-01</leafValues></_>
        <_>
          <internalNodes>
            0 -1 41 2147483647 -1073741825 -1 -1090519041 2147483647 -1
            -1 -1359085569</internalNodes>
          <leafValues>
            -3.5971909761428833e-01 6.7825990915298462e-01</leafValues></_></weakClassifiers></_>
    <!-- stage 8 -->
    <_>
      <maxWeakCount>5</maxWeakCount>
      <stageThreshold>-1.2423739433288574e+00</stageThreshold>
      <weakClassifiers>
        <_>
          <internalNodes>
            0 -1 35 0 268435456 0 285278208 0 0 34826 -2147450358</internalNodes>
          <leafValues>
            -6.4444446563720703e-01 5.6065571308135986e-01</leafValues></_>
        <_>
          <internalNodes>
            0 -1 5 0 285212672 0 285212672 128 128 134219912 128</internalNodes>
          <leafValues>
            -9.3124645948410034e-01 2.8103095293045044e-01</leafValues></_>
        <_>
          <internalNodes>
            0 -1 14 -1073709056 268468224 0 285212672 1073741960
            1342210176 -2147448824 419430408</internalNodes>
          <leafValues>
            -7.9238885641098022e-01 3.5118138790130615e-01</leafValues></_>
        <_>
          <internalNodes>
            0 -1 37 -2147450880 268435456 0 -2063532032 0 268435456
            34954 1074069634</internalNodes>
          <leafValues>
            -8.3086329698562622e-01 2.8510010242462158e-01</leafValues></_>
        <_>
          <internalNodes>
            0 -1 38 0 285212672 0 -1862270976 0 0 8 -1870659446</internalNodes>
          <leafValues>
            -3.7167170643806458e-01 7.5979375839233398e-01</leafValues></_></weakClassifiers></_>
    <!-- stage 9 -->
    <_>
      <maxWeakCount>4</maxWeakCount>
      <stageThreshold>-4.9968069791793823e-01</stageThreshold>
      <weakClassifiers>
        <_>
          <internalNodes>
            0 -1 8 -1 -1 -1 -1 2147483647 2147483647 -32769 -143294601</internalNodes>
          <leafValues>
            -5.3278690576553345e-01 7.6576578617095947e-01</leafValues></_>
        <_>
          <internalNodes>
            0 -1 13 -1073709056 1073774592 0 1358954496 1073741960
            1610645504 8 0</internalNodes>
          <leafValues>
            -7.5585311651229858e-01 4.5883470773696899e-01</leafValues></_>
        <_>
          <internalNodes>
            0 -1 2 0 0 0 285212672 136 0 136 939524224</internalNodes>
          <leafValues>
            -7.8538328409194946e-01 4.0083739161491394e-01</leafValues></_>
        <_>
          <internalNodes>
            0 -1 34 0 268435456 0 285212672 0 0 8 142606858</internalNodes>
          <leafValues>
            -8.2656592130661011e-01 3.8901928067207336e-01</leafValues></_></weakClassifiers></_>
    <!-- stage 10 -->
    <_>
      <maxWeakCount>4</maxWeakCount>
      <stageThreshold>-6.1716210842132568e-01</stageThreshold>
      <weakClassifiers>
        <_>
          <internalNodes>
            0 -1 6 0 268435456 0 16842752 128 293601408 134217736
            -1333788544</internalNodes>
          <leafValues>
            -6.9863015413284302e-01 7.9411762952804565e-01</leafValues></_>
        <_>
          <internalNodes>
            0 -1 11 1073774592 268468224 0 1358954496 128 8388736
            134219784 -2147483648</internalNodes>
          <leafValues>
            -4.9182739853858948e-01 8.4229826927185059e-01</leafValues></_>
        <_>
          <internalNodes>
            0 -1 25 0 0 0 285278208 0 0 138 -1610547200</internalNodes>
          <leafValues>
            -3.8867506384849548e-01 9.3779277801513672e-01</leafValues></_>
        <_>
          <internalNodes>
            0 -1 16 -1 -1 -1 -1 -1 2147483647 2147483519 -1602912393</internalNodes>
          <leafValues>
            -3.1753224134445190e-01 9.6197044849395752e-01</leafValues></_></weakClassifiers></_></stages>
  <features>
    <_>
      <rect>
        0 0 2 6</rect></_>
    <_>
      <rect>
        0 0 3 5</rect></_>
    <_>
      <rect>
        0 0 4 1</rect></_>
    <_>
      <rect>
        0 0 4 5</rect></_>
    <_>
      <rect>
        0 0 5 4</rect></_>
    <_>
      <rect>
        0 0 6 2</rect></_>
    <_>
      <rect>
        0 0 6 3</rect></_>
    <_>
      <rect>
        0 1 1 6</rect></_>
    <_>
      <rect>
        0 1 3 4</rect></_>
    <_>
      <rect>
        0 1 3 6</rect></_>
    <_>
      <rect>
        0 2 3 6</rect></_>
    <_>
      <rect>
        0 4 6 3</rect></_>
    <_>
      <rect>
        0 8 4 4</rect></_>
    <_>
      <rect>
        0 11 6 3</rect></_>
    <_>
      <rect>
        0 13 6 2</rect></_>
    <_>
      <rect>
        1 5 5 3</rect></_>
    <_>
      <rect>
        1 6 6 3</rect></_>
    <_>
      <rect>
        1 7 4 4</rect></_>
    <_>
      <rect>
        1 10 4 3</rect></_>
    <_>
      <rect>
        1 11 6 3</rect></_>
    <_>
      <rect>
        1 14 5 2</rect></_>
    <_>
      <rect>
        2 1 4 2</rect></_>
    <_>
      <rect>
        2 1 6 4</rect></_>
    <_>
      <rect>
        2 4 6 2</rect></_>
    <_>
      <rect>
        2 14 6 2</rect></_>
    <_>
      <rect>
        3 0 3 2</rect></_>
    <_>
      <rect>
        3 3 4 4</rect></_>
    <_>
      <rect>
        3 6 4 3</rect></_>
    <_>
      <rect>
        4 0 5 3</rect></_>
    <_>
      <rect>
        4 6 4 3</rect></_>
    <_>
      <rect>
        5 10 5 3</rect></_>
    <_>
      <rect>
        6 7 3 4</rect></_>
    <_>
      <rect>
        6 9 4 2</rect></_>
    <_>
      <rect>
        7 0 4 3</rect></_>
    <_>
      <rect>
        8 0 4 3</rect></_>
    <_>
      <rect>
        8 0 4 4</rect></_>
    <_>
      <rect>
        8 1 4 6</rect></_>
    <_>
      <rect>
        8 3 4 4</rect></_>
    <_>
      <rect>
        11 0 3 2</rect></_>
    <_>
      <rect>
        11 1 3 6</rect></_>
    <_>
      <rect>
        11 7 3 4</rect></_>
    <_>
      <rect>
        13 1 2 5</rect></_>
    <_>
      <rect>
        14 2 2 6</rect></_></features></cascade>
</opencv_storage>
