<?xml version="1.0"?>
<opencv_storage>
<cascade>
  <stageType>BOOST</stageType>
  <featureType>LBP</featureType>
  <height>20</height>
  <width>20</width>
  <stageParams>
    <boostType>GAB</boostType>
    <minHitRate>9.9500000476837158e-01</minHitRate>
    <maxFalseAlarm>5.0000000000000000e-01</maxFalseAlarm>
    <weightTrimRate>9.4999999999999996e-01</weightTrimRate>
    <maxDepth>1</maxDepth>
    <maxWeakCount>100</maxWeakCount></stageParams>
  <featureParams>
    <maxCatCount>256</maxCatCount>
    <featSize>1</featSize></featureParams>
  <stageNum>10</stageNum>
  <stages>
    <!-- stage 0 -->
    <_>
      <maxWeakCount>4</maxWeakCount>
      <stageThreshold>-1.0593672990798950e+00</stageThreshold>
      <weakClassifiers>
        <_>
          <internalNodes>
            0 -1 27 0 32768 0 1090519040 1073741824 1073774592 136
            -1719140216</internalNodes>
          <leafValues>
            -7.0687711238861084e-01 8.3235865831375122e-01</leafValues></_>
        <_>
          <internalNodes>
            0 -1 42 0 0 0 83951616 0 1073741824 10 -477429622</internalNodes>
          <leafValues>
            -4.8365822434425354e-01 8.3638095855712891e-01</leafValues></_>
        <_>
          <internalNodes>
            0 -1 31 0 0 0 151060480 0 0 136 159449226</internalNodes>
          <leafValues>
            -6.1916667222976685e-01 6.4707952737808228e-01</leafValues></_>
        <_>
          <internalNodes>
            0 -1 21 -1073709056 32768 0 16777216 1073741824 32768 8
            -1988099968</internalNodes>
          <leafValues>
            -5.0702673196792603e-01 7.5033473968505859e-01</leafValues></_></weakClassifiers></_>
    <!-- stage 1 -->
    <_>
      <maxWeakCount>4</maxWeakCount>
      <stageThreshold>-8.0974322557449341e-01</stageThreshold>
      <weakClassifiers>
        <_>
          <internalNodes>
            0 -1 45 0 0 0 83951616 0 1342177280 10 -1484029814</internalNodes>
          <leafValues>
            -6.6666668653488159e-01 7.8260868787765503e-01</leafValues></_>
        <_>
          <internalNodes>
            0 -1 14 1073709055 1073741823 -1 1073741823 2147450751
            2147450879 2147450751 -184582281</internalNodes>
          <leafValues>
            -5.1129931211471558e-01 8.0674588680267334e-01</leafValues></_>
        <_>
          <internalNodes>
            0 -1 35 -1073774593 805306367 -1 1879048191 2147450879
            2147483647 2147450751 -1476427905</internalNodes>
          <leafValues>
            -3.3869323134422302e-01 9.1231471300125122e-01</leafValues></_>
        <_>
          <internalNodes>
            0 -1 5 0 0 0 0 128 0 2058 -1585248246</internalNodes>
          <leafValues>
            -5.2630323171615601e-01 7.0691603422164917e-01</leafValues></_></weakClassifiers></_>
    <!-- stage 2 -->
    <_>
      <maxWeakCount>5</maxWeakCount>
      <stageThreshold>-1.2348401546478271e+00</stageThreshold>
      <weakClassifiers>
        <_>
          <internalNodes>
            0 -1 43 -1 805306367 -1 805306367 2147450879 2147483647 -1
            -268471793</internalNodes>
          <leafValues>
            -6.4227640628814697e-01 6.5491652488708496e-01</leafValues></_>
        <_>
          <internalNodes>
            0 -1 28 -805273472 268468224 0 83886080 1073741952
            1342177280 -2147448824 444596360</internalNodes>
          <leafValues>
            -8.1200373172760010e-01 3.3715924620628357e-01</leafValues></_>
        <_>
          <internalNodes>
            0 -1 26 -1 1073741823 -1 1879048191 2147450879 2147483647 -1
            -285245569</internalNodes>
          <leafValues>
            -4.1354396939277649e-01 7.4138414859771729e-01</leafValues></_>
        <_>
          <internalNodes>
            0 -1 19 0 0 0 16777216 0 8388608 8 134217728</internalNodes>
          <leafValues>
            -8.3922588825225830e-01 3.3467376232147217e-01</leafValues></_>
        <_>
          <internalNodes>
            0 -1 11 -1073709056 32768 0 83886080 1073741952 32896 2184
            327745544</internalNodes>
          <leafValues>
            -8.9653033018112183e-01 3.2304686307907104e-01</leafValues></_></weakClassifiers></_>
    <!-- stage 3 -->
    <_>
      <maxWeakCount>5</maxWeakCount>
      <stageThreshold>-5.3770869970321655e-01</stageThreshold>
      <weakClassifiers>
        <_>
          <internalNodes>
            0 -1 38 -65535 -1 -1 -1073741825 -1 -1 2147450879
            -1199570689</internalNodes>
          <leafValues>
            -5.3333336114883423e-01 7.0909088850021362e-01</leafValues></_>
        <_>
          <internalNodes>
            0 -1 32 -1073774593 1073741823 -1 1073741823 2147450751
            2147483647 2147483519 -1401585801</internalNodes>
          <leafValues>
            -3.9956557750701904e-01 8.0108118057250977e-01</leafValues></_>
        <_>
          <internalNodes>
            0 -1 6 0 0 0 285212672 136 0 2056 939589632</internalNodes>
          <leafValues>
            -7.5007677078247070e-01 3.9344772696495056e-01</leafValues></_>
        <_>
          <internalNodes>
            0 -1 36 1073774592 268468224 0 352387072 1073774592
            1610612736 34824 -1560215550</internalNodes>
          <leafValues>
            -5.6093829870223999e-01 4.9636867642402649e-01</leafValues></_>
        <_>
          <internalNodes>
            0 -1 15 -1 -1 -1 -1073741825 2147450751 2147483647
            2147450879 -16809993</internalNodes>
          <leafValues>
            -3.9569252729415894e-01 6.4889830350875854e-01</leafValues></_></weakClassifiers></_>
    <!-- stage 4 -->
    <_>
      <maxWeakCount>6</maxWeakCount>
      <stageThreshold>-1.4913219213485718e+00</stageThreshold>
      <weakClassifiers>
        <_>
          <internalNodes>
            0 -1 2 2147483647 -1073741825 -1 -1 2147483647 2147450879
            2147450879 -142639233</internalNodes>
          <leafValues>
            -5.3608244657516479e-01 7.4418604373931885e-01</leafValues></_>
        <_>
          <internalNodes>
            0 -1 16 -1073741824 1073741824 0 -2130706432 1073741832 0
            2056 150995080</internalNodes>
          <leafValues>
            -9.3238240480422974e-01 3.7157756090164185e-01</leafValues></_>
        <_>
          <internalNodes>
            0 -1 18 -1 1073741823 -1 -1073741825 2147483647 2147483647
            2147450879 -176851073</internalNodes>
          <leafValues>
            -4.4311395287513733e-01 7.3494744300842285e-01</leafValues></_>
        <_>
          <internalNodes>
            0 -1 37 -1073709056 16809984 0 285212672 1073741952
            805306368 2056 721420288</internalNodes>
          <leafValues>
            -7.9540151357650757e-01 4.2909774184226990e-01</leafValues></_>
        <_>
          <internalNodes>
            0 -1 34 0 285212672 0 285278208 0 268435456 8 -2004877304</internalNodes>
          <leafValues>
            -4.5794373750686646e-01 6.0908168554306030e-01</leafValues></_>
        <_>
          <internalNodes>
            0 -1 24 0 285212672 0 16777216 0 268435456 8 134217728</internalNodes>
          <leafValues>
            -7.7776068449020386e-01 3.6964216828346252e-01</leafValues></_></weakClassifiers></_>
    <!-- stage 5 -->
    <_>
      <maxWeakCount>3</maxWeakCount>
      <stageThreshold>-8.7043613195419312e-01</stageThreshold>
      <weakClassifiers>
        <_>
          <internalNodes>
            0 -1 8 -1073709056 -1073709056 0 0 1073741824 0 1073741832
            -1039532030</internalNodes>
          <leafValues>
            -7.1113562583923340e-01 9.0263694524765015e-01</leafValues></_>
        <_>
          <internalNodes>
            0 -1 13 -1073709056 0 0 0 0 0 8 9043978</internalNodes>
          <leafValues>
            -9.2136234045028687e-01 5.4119861125946045e-01</leafValues></_>
        <_>
          <internalNodes>
            0 -1 10 -1073709056 1073774592 0 0 128 1073774592 167774216
            -1954543094</internalNodes>
          <leafValues>
            -5.7267946004867554e-01 7.6206183433532715e-01</leafValues></_></weakClassifiers></_>
    <!-- stage 6 -->
    <_>
      <maxWeakCount>6</maxWeakCount>
      <stageThreshold>-1.3669711351394653e+00</stageThreshold>
      <weakClassifiers>
        <_>
          <internalNodes>
            0 -1 30 -1 -1 -1 -1 -1 -1 -32897 -1376485507</internalNodes>
          <leafValues>
            -4.6640315651893616e-01 7.0103091001510620e-01</leafValues></_>
        <_>
          <internalNodes>
            0 -1 41 -1073741824 268435456 0 352321536 0 268435456 32768
            71633546</internalNodes>
          <leafValues>
            -8.6952275037765503e-01 3.4384658932685852e-01</leafValues></_>
        <_>
          <internalNodes>
            0 -1 4 -1073709056 -2147450880 0 -2147483648 128 0 138
            1091052042</internalNodes>
          <leafValues>
            -7.6680010557174683e-01 3.2439872622489929e-01</leafValues></_>
        <_>
          <internalNodes>
            0 -1 7 0 268435456 0 -788529152 128 536870912 134219914
            142671872</internalNodes>
          <leafValues>
            -6.5570813417434692e-01 3.0387428402900696e-01</leafValues></_>
        <_>
          <internalNodes>
            0 -1 17 -1 -1073741825 -1 -1 2147483647 2147483647 -1
            -982157449</internalNodes>
          <leafValues>
            -4.3105226755142212e-01 5.7285130023956299e-01</leafValues></_>
        <_>
          <internalNodes>
            0 -1 25 -1 1073741823 -1 2147483647 2147483519 2147483647
            2147483647 -1921550345</internalNodes>
          <leafValues>
            -3.5043647885322571e-01 7.3614150285720825e-01</leafValues></_></weakClassifiers></_>
    <!-- stage 7 -->
    <_>
      <maxWeakCount>5</maxWeakCount>
      <stageThreshold>-8.0741333961486816e-01</stageThreshold>
      <weakClassifiers>
        <_>
          <internalNodes>
            0 -1 44 0 1342177280 0 285278208 32768 268435456 2058
            -2146852214</internalNodes>
          <leafValues>
            -5.9952038526535034e-01 5.3003531694412231e-01</leafValues></_>
        <_>
          <internalNodes>
            0 -1 22 0 268435456 0 285212672 8 -2147483648 136 8388736</internalNodes>
          <leafValues>
            -9.5234262943267822e-01 2.9479801654815674e-01</leafValues></_>
        <_>
          <internalNodes>
            0 -1 1 -1073741824 -1073741824 0 -1073741824 128 128 136
            1098973186</internalNodes>
          <leafValues>
            -6.9262552261352539e-01 3.3231300115585327e-01</leafValues></_>
        <_>
          <internalNodes>
            0 -1 33 -1 -1 -1 -1 -1 -1 -1 -42663947</internalNodes>
          <leafValues>
            -3.0498850345611572e-01 8.3804571628570557e-01</leafValues></_>
        <_>
          <internalNodes>
            0 -1 39 -1 -1 -1 -1342177281 2147450879 2147483647 -1
            -2047475841</internalNodes>
          <leafValues>
            -4.2590904235839844e-01 6.5482211112976074e-01</leafValues></_></weakClassifiers></_>
    <!-- stage 8 -->
    <_>
      <maxWeakCount>6</maxWeakCount>
      <stageThreshold>-1.0603332519531250e+00</stageThreshold>
      <weakClassifiers>
        <_>
          <internalNodes>
            0 -1 23 0 -1073741824 0 1073741824 128 0 10 -2147418110</internalNodes>
          <leafValues>
            -5.6016600131988525e-01 7.7981650829315186e-01</leafValues></_>
        <_>
          <internalNodes>
            0 -1 40 0 268435456 0 285212672 0 268435456 8 8388618</internalNodes>
          <leafValues>
            -7.1832311153411865e-01 4.3818846344947815e-01</leafValues></_>
        <_>
          <internalNodes>
            0 -1 0 -2147450880 0 0 0 128 0 0 -1064370174</internalNodes>
          <leafValues>
            -4.8946234583854675e-01 7.1137756109237671e-01</leafValues></_>
        <_>
          <internalNodes>
            0 -1 9 -1073741824 -1073741824 0 -989855744 8 0 8
            -2130704384</internalNodes>
          <leafValues>
            -4.5664060115814209e-01 6.6377872228622437e-01</leafValues></_>
        <_>
          <internalNodes>
            0 -1 27 -1073709056 285245440 0 16777216 1073741824
            1342210048 2184 128</internalNodes>
          <leafValues>
            -7.4923306703567505e-01 4.6061405539512634e-01</leafValues></_>
        <_>
          <internalNodes>
            0 -1 29 -1 -1 -1 -1 -1 -1 -1 -34275331</internalNodes>
          <leafValues>
            -3.6343905329704285e-01 8.8004952669143677e-01</leafValues></_></weakClassifiers></_>
    <!-- stage 9 -->
    <_>
      <maxWeakCount>3</maxWeakCount>
      <stageThreshold>-7.0486992597579956e-01</stageThreshold>
      <weakClassifiers>
        <_>
          <internalNodes>
            0 -1 3 0 0 0 1358954496 0 0 134219784 -1870659456</internalNodes>
          <leafValues>
            -6.7909604310989380e-01 7.7864074707031250e-01</leafValues></_>
        <_>
          <internalNodes>
            0 -1 12 -1073709056 32768 0 -1862270976 0 0 2058 0</internalNodes>
          <leafValues>
            -8.9109009504318237e-01 4.6379449963569641e-01</leafValues></_>
        <_>
          <internalNodes>
            0 -1 20 -1 2147483647 -1 -268435457 2147450751 2147450879
            2147483519 -2139654281</internalNodes>
          <leafValues>
            -4.8956838250160217e-01 8.8955181837081909e-01</leafValues></_></weakClassifiers></_></stages>
  <features>
    <_>
      <rect>
        0 0 2 5</rect></_>
    <_>
      <rect>
        0 0 3 5</rect></_>
    <_>
      <rect>
        0 0 3 6</rect></_>
    <_>
      <rect>
        0 0 6 3</rect></_>
    <_>
      <rect>
        0 1 2 6</rect></_>
    <_>
      <rect>
        0 1 3 6</rect></_>
    <_>
      <rect>
        0 2 5 3</rect></_>
    <_>
      <rect>
        0 2 6 4</rect></_>
    <_>
      <rect>
        0 5 3 5</rect></_>
    <_>
      <rect>
        0 5 5 3</rect></_>
    <_>
      <rect>
        0 7 5 4</rect></_>
    <_>
      <rect>
        0 8 6 4</rect></_>
    <_>
      <rect>
        0 10 5 3</rect></_>
    <_>
      <rect>
        0 11 1 3</rect></_>
    <_>
      <rect>
        0 11 5 2</rect></_>
    <_>
      <rect>
        0 13 4 2</rect></_>
    <_>
      <rect>
        0 14 4 2</rect></_>
    <_>
      <rect>
        1 0 4 5</rect></_>
    <_>
      <rect>
        1 0 4 6</rect></_>
    <_>
      <rect>
        1 3 5 3</rect></_>
    <_>
      <rect>
        1 5 6 3</rect></_>
    <_>
      <rect>
        1 14 5 2</rect></_>
    <_>
      <rect>
        2 0 6 1</rect></_>
    <_>
      <rect>
        2 1 3 4</rect></_>
    <_>
      <rect>
        2 2 6 3</rect></_>
    <_>
      <rect>
        2 7 6 3</rect></_>
    <_>
      <rect>
        2 8 6 4</rect></_>
    <_>
      <rect>
        2 11 6 3</rect></_>
    <_>
      <rect>
        2 14 6 2</rect></_>
    <_>
      <rect>
        4 0 3 2</rect></_>
    <_>
      <rect>
        4 0 4 3</rect></_>
    <_>
      <rect>
        4 1 5 4</rect></_>
    <_>
      <rect>
        4 6 4 3</rect></_>
    <_>
      <rect>
        5 0 4 2</rect></_>
    <_>
      <rect>
        5 0 4 3</rect></_>
    <_>
      <rect>
        5 7 4 4</rect></_>
    <_>
      <rect>
        5 8 5 4</rect></_>
    <_>
      <rect>
        5 13 5 2</rect></_>
    <_>
      <rect>
        7 0 4 3</rect></_>
    <_>
      <rect>
        7 0 4 5</rect></_>
    <_>
      <rect>
        8 0 4 3</rect></_>
    <_>
      <rect>
        8 0 4 6</rect></_>
    <_>
      <rect>
        8 5 4 5</rect></_>
    <_>
      <rect>
        8 8 4 4</rect></_>
    <_>
      <rect>
        11 0 3 5</rect></_>
    <_>
      <rect>
        11 2 3 6</rect></_></features></cascade>
</opencv_storage>
